-0.19859 -0.23404 0.29444 0.05821 -0.18350 0.09877 -0.66939 0.23037 -0.41437 0.09327
-0.20474 -0.14054 -0.15512 -0.10776 0.07325 -0.04297 -0.09921 0.11068 -0.04266 0.02154
-0.00922 0.00054 -0.24715 -0.14420 0.03511 -0.18121 -0.11925 0.03129 -0.08899 0.11693
0.21410 -0.15293 0.33679 0.01412 0.14532 -0.25854 -0.19648 0.18140 -0.30969 -0.19750
-0.43353 -0.02297 0.12938 0.20153 -0.17498 0.18486 -0.31359 -0.48084 0.05777 -0.04579
-0.04773 -0.20517 -0.11694 -0.01626 -0.07059 0.02902 -0.27892 0.05675 -0.04252 0.07940
0.09760 -0.06254 -0.11248 -0.05503 -0.16499 0.07663 -0.11006 -0.20934 0.04082 -0.13302
-0.18912 -0.09096 -0.00253 -0.17925 0.03719 0.07622 0.09918 -0.15240 -0.06934 -0.12662
-0.22953 0.07334 -0.29242 -0.11141 0.16335 0.02514 -0.04184 -0.23798 0.17761 0.01221
0.04663 0.00553 -0.03074 -0.00107 -0.36688 -0.30812 0.30578 -0.08164 -0.20195 0.05371
-0.09541 -0.09456 0.11137 -0.01703 0.13643 -0.16341 0.09505 -0.10096 0.00593 -0.17810
-0.13307 -0.05212 -0.14760 -0.05311 -0.06070 -0.08403 -0.05581 -0.08119 0.02972 -0.11191
-0.08745 -0.24732 0.18770 0.19608 -0.39664 -0.02052 -0.59554 0.13026 -0.12844 0.15078
-0.34852 0.22192 -0.14656 0.02067 0.21557 -0.02893 -0.37142 -0.00877 -0.06207 -0.03874
-0.09498 -0.06176 -0.10047 -0.02115 -0.12395 -0.18909 0.12513 0.15756 -0.20279 -0.04430
-0.14603 0.10427 -0.10318 -0.02052 -0.15513 -0.06472 -0.04614 -0.22186 -0.12967 -0.09561
-0.11725 0.10473 0.13110 -0.25494 -0.13551 0.13586 -0.06648 0.30751 -0.22134 -0.55353
-0.33551 0.13794 0.22080 -0.10078 -0.04749 -0.05174 -0.13145 0.20655 0.04461 -0.72195
-0.26009 -0.16729 -0.01064 -0.41909 0.12679 0.11928 0.06425 -0.09570 0.19247 0.08708
-0.25215 0.12039 0.07244 0.09758 -0.39322 -0.05294 -0.14521 -0.06867 -0.10627 -0.13559
-0.12924 0.05207 -0.05678 0.01902 -0.10581 -0.20729 -0.14937 0.04402 -0.07520 -0.23565
0.02731 -0.27076 0.07073 -0.29378 0.16198 0.04457 0.01724 -0.15093 -0.08950 0.12499
-0.00766 -0.20523 -0.04839 0.01690 -0.10323 -0.08495 -0.00308 -0.23136 0.04527 -0.08766
0.06903 0.07438 0.03484 -0.14702 0.02418 -0.39704 -0.11739 -0.05955 -0.10861 0.11243
-0.06467 -0.00864 -0.05129 -0.20330 -0.03202 -0.05406 -0.00677 -0.12323 0.00833 -0.17949
-0.18189 0.07288 0.07516 0.04515 -0.13196 -0.08893 -0.12886 -0.16561 -0.13447 0.00508
-0.06524 0.17760 0.07022 -0.14986 -0.21556 -0.15892 -0.11479 -0.19198 0.04877 0.05701
-0.07974 -0.08487 -0.01928 -0.00343 -0.02813 -0.01560 0.03406 0.03433 -0.02108 0.05724
-0.00746 -0.12995 0.02525 -0.00957 0.03518 0.01557 -0.19631 -0.27421 0.13813 -0.03914
-0.33355 0.32548 -0.70877 0.01218 -0.23122 0.47640 0.10131 -0.30909 -0.46762 0.05844
0.04213 -0.19005 0.00503 -0.12208 -0.02591 -0.15848 -0.07275 -0.07717 -0.05010 0.04684
-0.00410 -0.16404 -0.17629 0.04585 -0.00287 0.02843 -0.13132 0.05044 -0.03199 -0.15834
-0.13792 -0.02277 -0.11836 -0.12025 0.04412 0.03307 0.04487 -0.06448 -0.05198 -0.18874
0.15646 0.15807 0.08645 -0.02292 -0.01628 -0.80070 -0.31253 -0.07889 -0.03131 0.22965
0.10356 -0.17279 0.32885 0.01268 -0.37551 0.02601 -0.03889 0.11047 -0.12951 -0.35933
-0.12080 0.06864 -0.05263 -0.11213 -0.23762 0.13347 0.14540 -0.35560 0.05858 -0.08338
-0.04080 0.11200 0.31423 -0.36118 -0.22605 -0.08456 -0.18574 0.12567 0.12665 -0.41144
0.11373 -0.03315 -0.21917 -0.19480 -0.15252 -0.03621 -0.00768 -0.07050 -0.02509 -0.01697
-0.08434 -0.12879 0.00607 0.10579 -0.05200 -0.11709 0.01610 -0.14962 0.01524 -0.09804
0.09403 -0.10253 0.02916 0.06931 -0.44760 -0.16402 0.05512 -0.01808 -0.06159 0.11277
-0.34236 -0.00665 -0.12630 -0.13484 0.04923 0.08844 -0.21000 -0.06965 0.05312 0.11837
-0.19490 0.09893 0.01990 0.12210 0.10526 -0.22733 0.08454 0.28123 -0.17790 -0.65573
0.06338 -0.17519 -0.02445 -0.13426 -0.09063 0.01048 -0.02836 -0.16934 -0.07879 -0.03406
0.12213 -0.14110 -0.18823 0.14519 -0.22842 0.07304 -0.32639 0.05810 -0.13270 0.04627
-0.10771 -0.15659 0.02304 -0.20436 0.14660 -0.18864 -0.05280 0.13830 -0.15766 0.13898
-0.17818 -0.10110 -0.15751 -0.07618 0.11000 -0.11132 -0.18566 -0.02531 0.10631 0.06215
-0.11522 -0.10206 0.03214 0.05143 0.10307 -0.13108 -0.32386 0.10813 0.02378 -0.09028
0.23821 0.28370 0.06369 -0.22358 -0.18111 -0.11053 -0.00909 0.39645 -0.54366 -0.10768
-0.07465 -0.02868 -0.12158 -0.05804 -0.18405 -0.11733 -0.11517 0.04519 0.00954 -0.03921
0.03675 -0.11642 0.08304 -0.07730 -0.03287 -0.09319 -0.04609 -0.15430 -0.08361 -0.07743
0.09245 -0.19946 0.36845 -0.09850 -0.16522 0.56577 -0.12601 -0.08807 -0.63404 -0.04396
0.00990 -0.05972 0.05979 -0.09337 -0.03046 -0.11921 0.10495 -0.29617 -0.15148 -0.08690
-0.04231 -0.03060 -0.55030 0.14417 -0.06365 0.17467 -0.16645 0.21731 -0.18936 0.07737
0.24079 -0.31741 0.10308 -0.01818 -0.25097 0.17064 -0.04517 -0.32998 -0.02047 -0.03127
-0.22799 -0.09697 -0.05366 -0.07538 -0.11959 -0.03923 0.09133 -0.14085 -0.03920 -0.03366
0.10897 0.15310 -0.12138 0.22774 0.17690 0.04620 0.19673 0.20746 -0.43480 -0.54534
-0.06415 -0.21881 -0.23041 -0.05948 -0.05154 -0.19462 0.03053 0.00669 -0.05663 -0.00454
-0.09441 -0.21056 0.01653 0.01262 0.07384 -0.19818 -0.00361 -0.13852 0.02004 0.11665
0.00645 -0.29344 -0.06944 -0.08949 -0.09319 0.05800 -0.10289 -0.03295 -0.05696 -0.04186
0.18427 -0.07671 -0.26290 -0.14476 0.06727 -0.16168 0.21962 -0.08848 -0.02314 0.04439
-0.01061 0.51115 0.08457 -0.42869 0.37793 -0.03312 -0.01454 -0.03472 -0.37663 -0.31705
-0.04635 -0.16429 -0.23904 -0.00967 0.13807 0.05221 -0.01561 -0.13732 -0.07690 0.01283
-0.03245 0.13579 -0.07841 0.07075 -0.10698 -0.01623 -0.24488 -0.16580 -0.01598 -0.07119
-0.03328 -0.20816 -0.06315 -0.00944 -0.20052 -0.06927 -0.15052 -0.07154 0.11215 0.02314
-0.13985 0.07853 -0.10080 -0.13669 -0.01577 0.12336 -0.05642 0.06596 -0.19640 -0.10829
