-0.19127 0.04779 0.03885 -0.14260 -0.15739 -0.02076 -0.08646 -0.11634 0.01667 -0.22555
-0.01043 -0.02039 -0.02589 -0.04997 -0.06093 0.04920 -0.00536 0.04244 -0.01623 -0.06860
-0.12482 0.20531 -0.06155 0.01595 0.04877 -0.14378 -0.03757 0.07558 0.15001 -0.50911
-0.17684 -0.13941 -0.19211 0.12064 -0.09339 0.01037 -0.15020 0.05653 0.01838 0.03428
-0.08262 0.12959 0.11280 0.10900 -0.04835 -0.14127 -0.16004 -0.25831 -0.19606 -0.11706
0.15779 -0.26170 0.02655 -0.12318 0.05504 0.21730 -0.34782 -0.06566 -0.03472 0.08839
-0.07987 -0.07003 -0.21891 0.02021 -0.07460 -0.19164 -0.03919 -0.03761 -0.13092 0.15535
0.08597 -0.17923 -0.10256 -0.13862 -0.08839 0.07040 -0.09976 -0.06815 -0.00520 -0.09612
0.04987 0.13566 -0.48542 0.16255 0.22114 -0.43950 -0.06556 -0.05849 -0.28710 0.23245
0.13638 -0.26024 0.00099 -0.09545 -0.23330 -0.07878 -0.21586 0.18840 -0.12551 0.12286
0.00103 -0.08055 -0.08612 -0.01748 -0.08102 -0.04510 -0.01076 -0.22201 -0.05274 -0.10657
0.17289 -0.18046 -0.10581 -0.02591 -0.15468 0.09954 -0.03211 -0.10464 0.02936 -0.17904
0.05795 -0.01891 0.14637 0.03865 -0.02213 -0.04602 -0.35999 0.14753 -0.28831 -0.20147
-0.06515 -0.03297 -0.11301 -0.13306 0.16405 -0.21230 -0.02805 -0.01778 0.01227 -0.08646
0.06758 0.09124 0.44292 0.19467 -0.43789 -0.42802 -0.28149 0.24297 -0.31093 0.06376
-0.12586 -0.19959 -0.10895 -0.02577 -0.09270 0.06237 -0.17921 0.03140 -0.08978 -0.01471
-0.01423 -0.14197 0.09980 0.05839 -0.19958 -0.09431 -0.09171 -0.15529 -0.02903 -0.07143
-0.48702 0.15560 0.32981 -0.06569 -0.28701 0.20575 -0.30741 0.36712 -0.24428 -0.31441
-0.08287 -0.12027 -0.00596 0.04161 -0.11140 -0.08440 -0.18324 0.10289 -0.18174 -0.11687
-0.17399 -0.10645 -0.06864 -0.12165 0.02446 0.04320 -0.17903 0.12613 -0.14518 -0.11600
-0.04258 0.29828 -0.00617 -0.34946 0.15480 -0.26434 -0.37762 0.06071 -0.03296 0.11042
-0.12550 -0.08382 -0.17546 -0.02398 -0.15281 -0.11484 0.01786 0.16635 -0.05895 -0.06817
0.09498 -0.06255 -0.09616 -0.14379 -0.01106 0.05772 -0.13163 -0.10666 0.07389 -0.22186
-0.12638 -0.13663 0.18814 -0.08721 -0.00979 -0.35184 -0.32357 0.13774 0.20751 0.09933
0.01596 -0.02908 0.02779 0.10562 -0.45209 0.27480 0.17276 -0.40076 -0.27222 -0.27608
-0.86987 0.28085 -0.15362 0.25422 0.16500 0.08038 -0.68625 -0.57717 -0.03397 0.38794
-0.21487 0.11904 -0.14789 0.03483 -0.16536 0.06298 -0.14348 -0.17474 0.13328 0.02462
-0.19292 0.18380 -0.14166 -0.69146 -0.11887 -0.11913 0.24802 -0.21336 0.02104 0.22466
-0.09491 0.08921 -0.07030 -0.10239 -0.05342 -0.10015 -0.07308 -0.15718 -0.04584 -0.10898
-0.03887 -0.04535 -0.01913 -0.14823 0.18271 -0.21986 -0.12879 -0.12851 0.02818 0.02809
-0.13138 -0.13459 -0.04818 0.17598 -0.13925 -0.03157 -0.22497 -0.10718 0.06313 -0.15222
-0.00043 -0.12367 0.07874 -0.14660 -0.53847 0.09035 0.19613 -0.09274 -0.04397 0.05520
0.42787 0.03380 0.33720 -0.15953 -0.24673 -0.80877 -0.24824 0.03338 -0.05292 0.22862
0.22820 -0.19966 -0.06349 0.08714 -0.03600 -0.23026 -0.11794 0.11322 -0.08912 0.05288
-0.26979 0.11524 0.02965 0.03371 -0.17863 0.08978 0.04954 0.25286 -0.18932 -0.61914
-0.14252 -0.06864 -0.13873 -0.04673 -0.10789 -0.18093 -0.05235 0.00715 -0.02047 0.03138
0.00727 0.48772 -0.39668 -0.17966 0.04518 0.12356 -0.00813 0.24865 -0.42576 -0.06193
-0.14377 -0.10802 0.06682 -0.01856 0.03128 -0.16769 -0.34955 -0.20932 0.01806 0.18316
0.07905 0.05069 0.18307 0.00988 -0.64653 -0.05397 -0.13331 -0.16727 0.06860 -0.07912
-0.02548 0.02499 -0.05494 -0.16359 -0.14852 -0.16185 -0.09906 0.09093 -0.04154 -0.19270
-0.09920 -0.22781 -0.06065 -0.15104 0.09258 -0.05244 -0.04257 -0.11635 -0.07629 -0.03781
-0.10242 -0.13494 0.06956 0.02504 0.07884 -0.07716 0.01087 -0.29300 0.05830 -0.10948
0.16306 -0.13690 0.09135 -0.22314 0.22411 -0.22951 0.12334 -0.23592 -0.11503 -0.13771
-0.06633 -0.21594 -0.06570 -0.04079 -0.13892 0.00795 -0.05077 -0.22199 0.07612 0.01015
-0.00961 -0.26669 -0.05963 -0.11425 -0.06447 -0.07870 -0.06208 -0.00680 -0.00238 -0.07416
0.02908 -0.19364 0.06793 -0.17450 -0.01533 -0.13896 0.02722 -0.12288 -0.12056 -0.01001
-0.25550 0.09322 -0.02542 -0.02542 -0.17064 -0.10366 -0.13372 -0.10129 -0.02766 0.02958
-0.32387 0.03557 -0.43848 -0.04190 -0.06859 0.52305 0.08426 -0.04030 -0.61104 0.12191
-0.27689 -0.10964 -0.14457 -0.03393 0.15251 0.05422 -0.11836 0.11346 -0.08820 0.05552
-0.20571 -0.11997 -0.05909 -0.07051 0.16410 -0.08180 0.10121 -0.04382 -0.04057 -0.13375
-0.17409 -0.24421 -0.37706 0.00516 0.19321 0.17862 -0.24418 0.06071 0.11347 -0.16631
-0.05342 -0.14427 -0.18116 -0.11009 -0.13769 -0.09056 -0.05826 -0.05476 -0.10271 0.08860
0.02964 -0.24387 0.17720 0.14040 -0.04914 -0.15070 -0.12748 0.12500 -0.23319 -0.12070
0.06547 -0.04693 -0.55092 0.13916 -0.07540 0.18197 -0.08514 -0.10857 0.01453 -0.09985
-0.16585 0.12579 -0.08776 0.07818 -0.11683 0.09332 -0.00620 -0.21117 -0.12761 -0.24135
0.02341 -0.01664 -0.08569 -0.17248 -0.14050 -0.10670 0.05710 -0.21200 -0.00861 0.01019
0.03708 -0.22300 -0.13232 -0.03821 -0.03725 -0.16270 0.05986 0.14113 -0.07634 -0.03524
-0.06007 0.08950 -0.07916 -0.34977 0.12415 0.18529 0.22215 -0.22006 -0.02073 -0.34309
-0.30830 -0.24600 0.11138 -0.31840 0.12676 0.19328 0.04845 -0.41367 0.03466 0.14700
0.00736 0.04386 0.45534 -0.09706 -0.18925 0.08326 0.21085 -0.15046 -0.47053 -0.60424
0.12095 0.24530 -0.11087 -0.10156 0.27481 -0.04613 0.25672 0.10989 -0.53135 -0.26601
0.09922 -0.23440 0.06609 -0.03683 -0.13524 0.04270 0.00509 -0.27248 -0.00070 -0.01068
-0.07638 -0.27231 -0.04152 0.01013 -0.08183 -0.00122 0.21324 -0.23213 0.04419 -0.17011
-0.17326 -0.19222 -0.10205 -0.02370 0.08814 -0.13558 -0.12177 0.03151 -0.03887 0.04736
-0.17032 0.10422 -0.04223 -0.09376 -0.04240 0.17256 -0.10805 0.10379 -0.22909 -0.16273
